<?xml version="1.0"?>
<opencv_storage>
<cascade>
  <stageType>BOOST</stageType>
  <featureType>HAAR</featureType>
  <height>40</height>
  <width>40</width>
  <stageParams>
    <boostType>GAB</boostType>
    <minHitRate>9.9500000476837158e-001</minHitRate>
    <maxFalseAlarm>5.0000000000000000e-001</maxFalseAlarm>
    <weightTrimRate>9.4999999999999996e-001</weightTrimRate>
    <maxDepth>1</maxDepth>
    <maxWeakCount>100</maxWeakCount></stageParams>
  <featureParams>
    <maxCatCount>0</maxCatCount>
    <featSize>1</featSize>
    <mode>BASIC</mode></featureParams>
  <stageNum>9</stageNum>
  <stages>
    <!-- stage 0 -->
    <_>
      <maxWeakCount>1</maxWeakCount>
      <stageThreshold>9.3548387289047241e-001</stageThreshold>
      <weakClassifiers>
        <_>
          <internalNodes>
            0 -1 8 2.1357521414756775e-001</internalNodes>
          <leafValues>
            -1. 9.3548387289047241e-001</leafValues></_></weakClassifiers></_>
    <!-- stage 1 -->
    <_>
      <maxWeakCount>2</maxWeakCount>
      <stageThreshold>-1.4074437320232391e-001</stageThreshold>
      <weakClassifiers>
        <_>
          <internalNodes>
            0 -1 4 1.5681283175945282e-001</internalNodes>
          <leafValues>
            -9.7222220897674561e-001 7.5757575035095215e-001</leafValues></_>
        <_>
          <internalNodes>
            0 -1 5 2.7705885469913483e-002</internalNodes>
          <leafValues>
            -8.9832013845443726e-001 9.4868552684783936e-001</leafValues></_></weakClassifiers></_>
    <!-- stage 2 -->
    <_>
      <maxWeakCount>2</maxWeakCount>
      <stageThreshold>-4.6367463469505310e-001</stageThreshold>
      <weakClassifiers>
        <_>
          <internalNodes>
            0 -1 1 7.1919389069080353e-002</internalNodes>
          <leafValues>
            -8.3561640977859497e-001 5.0000000000000000e-001</leafValues></_>
        <_>
          <internalNodes>
            0 -1 9 1.1028161644935608e-001</internalNodes>
          <leafValues>
            -9.6367460489273071e-001 4.9230247735977173e-001</leafValues></_></weakClassifiers></_>
    <!-- stage 3 -->
    <_>
      <maxWeakCount>2</maxWeakCount>
      <stageThreshold>-2.8858855366706848e-001</stageThreshold>
      <weakClassifiers>
        <_>
          <internalNodes>
            0 -1 7 1.2598219513893127e-001</internalNodes>
          <leafValues>
            -9.4285714626312256e-001 6.0000002384185791e-001</leafValues></_>
        <_>
          <internalNodes>
            0 -1 12 4.4452860020101070e-003</internalNodes>
          <leafValues>
            -1. 6.5426856279373169e-001</leafValues></_></weakClassifiers></_>
    <!-- stage 4 -->
    <_>
      <maxWeakCount>2</maxWeakCount>
      <stageThreshold>-1.4408127963542938e-001</stageThreshold>
      <weakClassifiers>
        <_>
          <internalNodes>
            0 -1 6 -1.4176588738337159e-003</internalNodes>
          <leafValues>
            8.9473682641983032e-001 -7.2093021869659424e-001</leafValues></_>
        <_>
          <internalNodes>
            0 -1 3 1.1539034545421600e-001</internalNodes>
          <leafValues>
            -9.2188143730163574e-001 5.7684892416000366e-001</leafValues></_></weakClassifiers></_>
    <!-- stage 5 -->
    <_>
      <maxWeakCount>3</maxWeakCount>
      <stageThreshold>-7.7381396293640137e-001</stageThreshold>
      <weakClassifiers>
        <_>
          <internalNodes>
            0 -1 13 -1.9019151106476784e-002</internalNodes>
          <leafValues>
            8.3333331346511841e-001 -8.0246913433074951e-001</leafValues></_>
        <_>
          <internalNodes>
            0 -1 14 3.8526155054569244e-002</internalNodes>
          <leafValues>
            -7.3571729660034180e-001 7.8334254026412964e-001</leafValues></_>
        <_>
          <internalNodes>
            0 -1 2 1.2368449242785573e-003</internalNodes>
          <leafValues>
            -7.0879393815994263e-001 7.6437246799468994e-001</leafValues></_></weakClassifiers></_>
    <!-- stage 6 -->
    <_>
      <maxWeakCount>2</maxWeakCount>
      <stageThreshold>-3.4038722515106201e-001</stageThreshold>
      <weakClassifiers>
        <_>
          <internalNodes>
            0 -1 11 1.6306939721107483e-001</internalNodes>
          <leafValues>
            -9.1891890764236450e-001 7.4193549156188965e-001</leafValues></_>
        <_>
          <internalNodes>
            0 -1 10 -1.2186516821384430e-001</internalNodes>
          <leafValues>
            -9.4137644767761230e-001 5.7853168249130249e-001</leafValues></_></weakClassifiers></_>
    <!-- stage 7 -->
    <_>
      <maxWeakCount>1</maxWeakCount>
      <stageThreshold>7.1428573131561279e-001</stageThreshold>
      <weakClassifiers>
        <_>
          <internalNodes>
            0 -1 16 -1.4963820576667786e-003</internalNodes>
          <leafValues>
            7.1428573131561279e-001 -1.</leafValues></_></weakClassifiers></_>
    <!-- stage 8 -->
    <_>
      <maxWeakCount>2</maxWeakCount>
      <stageThreshold>7.7849021181464195e-003</stageThreshold>
      <weakClassifiers>
        <_>
          <internalNodes>
            0 -1 0 9.8853357136249542e-002</internalNodes>
          <leafValues>
            -8.7500000000000000e-001 1.</leafValues></_>
        <_>
          <internalNodes>
            0 -1 15 1.3510778080672026e-003</internalNodes>
          <leafValues>
            -9.2906683683395386e-001 8.8278490304946899e-001</leafValues></_></weakClassifiers></_></stages>
  <features>
    <_>
      <rects>
        <_>
          3 18 16 12 -1.</_>
        <_>
          11 18 8 12 2.</_></rects>
      <tilted>0</tilted></_>
    <_>
      <rects>
        <_>
          4 18 12 11 -1.</_>
        <_>
          10 18 6 11 2.</_></rects>
      <tilted>0</tilted></_>
    <_>
      <rects>
        <_>
          4 32 5 6 -1.</_>
        <_>
          4 34 5 2 3.</_></rects>
      <tilted>0</tilted></_>
    <_>
      <rects>
        <_>
          5 15 30 9 -1.</_>
        <_>
          15 15 10 9 3.</_></rects>
      <tilted>0</tilted></_>
    <_>
      <rects>
        <_>
          6 19 33 11 -1.</_>
        <_>
          17 19 11 11 3.</_></rects>
      <tilted>0</tilted></_>
    <_>
      <rects>
        <_>
          6 20 8 14 -1.</_>
        <_>
          10 20 4 14 2.</_></rects>
      <tilted>0</tilted></_>
    <_>
      <rects>
        <_>
          6 34 5 4 -1.</_>
        <_>
          6 36 5 2 2.</_></rects>
      <tilted>0</tilted></_>
    <_>
      <rects>
        <_>
          7 11 24 19 -1.</_>
        <_>
          15 11 8 19 3.</_></rects>
      <tilted>0</tilted></_>
    <_>
      <rects>
        <_>
          9 6 18 33 -1.</_>
        <_>
          9 17 18 11 3.</_></rects>
      <tilted>0</tilted></_>
    <_>
      <rects>
        <_>
          10 7 23 24 -1.</_>
        <_>
          10 15 23 8 3.</_></rects>
      <tilted>0</tilted></_>
    <_>
      <rects>
        <_>
          12 1 28 20 -1.</_>
        <_>
          26 1 14 20 2.</_></rects>
      <tilted>0</tilted></_>
    <_>
      <rects>
        <_>
          12 10 19 24 -1.</_>
        <_>
          12 18 19 8 3.</_></rects>
      <tilted>0</tilted></_>
    <_>
      <rects>
        <_>
          14 26 12 6 -1.</_>
        <_>
          14 28 12 2 3.</_></rects>
      <tilted>0</tilted></_>
    <_>
      <rects>
        <_>
          20 0 17 10 -1.</_>
        <_>
          20 5 17 5 2.</_></rects>
      <tilted>0</tilted></_>
    <_>
      <rects>
        <_>
          21 16 7 18 -1.</_>
        <_>
          21 22 7 6 3.</_></rects>
      <tilted>0</tilted></_>
    <_>
      <rects>
        <_>
          22 14 3 16 -1.</_>
        <_>
          22 22 3 8 2.</_></rects>
      <tilted>0</tilted></_>
    <_>
      <rects>
        <_>
          27 21 8 1 -1.</_>
        <_>
          31 21 4 1 2.</_></rects>
      <tilted>0</tilted></_></features></cascade>
</opencv_storage>
